<?xml version="1.0"?>
<opencv_storage>
<stage12>
  <maxWeakCount>33</maxWeakCount>
  <stageThreshold>-1.9189574718475342e+00</stageThreshold>
  <weakClassifiers>
    <_>
      <internalNodes>
        0 -1 7669620 -6.8439799360930920e-03</internalNodes>
      <leafValues>
        -1.5617716312408447e-01 -7.1368640661239624e-01</leafValues></_>
    <_>
      <internalNodes>
        0 -1 4584345 -1.2722697108983994e-02</internalNodes>
      <leafValues>
        3.1768640875816345e-01 -2.6909852027893066e-01</leafValues></_>
    <_>
      <internalNodes>
        0 -1 5464794 -4.2473856592550874e-04</internalNodes>
      <leafValues>
        1.9490799307823181e-01 -2.4814613163471222e-01</leafValues></_>
    <_>
      <internalNodes>
        0 -1 6472746 9.8084704950451851e-04</internalNodes>
      <leafValues>
        -1.2886470556259155e-01 3.3379611372947693e-01</leafValues></_>
    <_>
      <internalNodes>
        0 -1 6477243 -7.2654418181627989e-04</internalNodes>
      <leafValues>
        3.3971941471099854e-01 -1.2026367336511612e-01</leafValues></_>
    <_>
      <internalNodes>
        0 -1 2866325 -1.1819727718830109e-02</internalNodes>
      <leafValues>
        -6.9173896312713623e-01 6.1603326350450516e-02</leafValues></_>
    <_>
      <internalNodes>
        0 -1 5455985 -4.6935639693401754e-04</internalNodes>
      <leafValues>
        -5.8876419067382812e-01 7.9672373831272125e-02</leafValues></_>
    <_>
      <internalNodes>
        0 -1 4230223 -1.7191418446600437e-03</internalNodes>
      <leafValues>
        3.2335922122001648e-01 -1.1914049834012985e-01</leafValues></_>
    <_>
      <internalNodes>
        0 -1 751055 -5.6586205027997494e-03</internalNodes>
      <leafValues>
        4.4097802042961121e-01 -1.0495297610759735e-01</leafValues></_>
    <_>
      <internalNodes>
        0 -1 117586 1.7686333507299423e-02</internalNodes>
      <leafValues>
        -9.6381448209285736e-02 4.5334437489509583e-01</leafValues></_>
    <_>
      <internalNodes>
        0 -1 6618776 -2.2794092074036598e-03</internalNodes>
      <leafValues>
        1.4319998025894165e-01 -2.9610213637351990e-01</leafValues></_>
    <_>
      <internalNodes>
        0 -1 6562368 -4.1977991349995136e-03</internalNodes>
      <leafValues>
        -6.9639998674392700e-01 8.0857150256633759e-02</leafValues></_>
    <_>
      <internalNodes>
        0 -1 6047864 -7.8149419277906418e-04</internalNodes>
      <leafValues>
        3.2598182559013367e-01 -1.3492271304130554e-01</leafValues></_>
    <_>
      <internalNodes>
        0 -1 5958554 -6.7322602262720466e-05</internalNodes>
      <leafValues>
        1.8442822992801666e-01 -2.2683364152908325e-01</leafValues></_>
    <_>
      <internalNodes>
        0 -1 5498870 -2.2028128150850534e-03</internalNodes>
      <leafValues>
        1.9248327612876892e-01 -2.1120813488960266e-01</leafValues></_>
    <_>
      <internalNodes>
        0 -1 4036434 1.9625507295131683e-02</internalNodes>
      <leafValues>
        -9.3540407717227936e-02 4.7754386067390442e-01</leafValues></_>
    <_>
      <internalNodes>
        0 -1 4815040 1.1457344517111778e-03</internalNodes>
      <leafValues>
        -1.1147412657737732e-01 3.8234388828277588e-01</leafValues></_>
    <_>
      <internalNodes>
        0 -1 4137441 -5.9110778383910656e-03</internalNodes>
      <leafValues>
        -7.1288752555847168e-01 6.3919626176357269e-02</leafValues></_>
    <_>
      <internalNodes>
        0 -1 4923442 1.2138859601691365e-03</internalNodes>
      <leafValues>
        -1.2484105676412582e-01 3.9596089720726013e-01</leafValues></_>
    <_>
      <internalNodes>
        0 -1 5200088 2.9171928763389587e-02</internalNodes>
      <leafValues>
        5.4550450295209885e-02 -7.5531965494155884e-01</leafValues></_>
    <_>
      <internalNodes>
        0 -1 2616232 3.6195255815982819e-02</internalNodes>
      <leafValues>
        -1.2267703562974930e-01 3.7486541271209717e-01</leafValues></_>
    <_>
      <internalNodes>
        0 -1 5856733 5.4442947730422020e-03</internalNodes>
      <leafValues>
        7.6843298971652985e-02 -5.5735170841217041e-01</leafValues></_>
    <_>
      <internalNodes>
        0 -1 4193685 -2.1590742107946426e-05</internalNodes>
      <leafValues>
        1.7146311700344086e-01 -2.3839342594146729e-01</leafValues></_>
    <_>
      <internalNodes>
        0 -1 149141 -7.1859576564747840e-05</internalNodes>
      <leafValues>
        -3.5044983029365540e-01 1.1504382640123367e-01</leafValues></_>
    <_>
      <internalNodes>
        0 -1 5489703 1.0052344296127558e-03</internalNodes>
      <leafValues>
        -1.2258305400609970e-01 3.8105830550193787e-01</leafValues></_>
    <_>
      <internalNodes>
        0 -1 7645382 4.5222528278827667e-03</internalNodes>
      <leafValues>
        -1.0503581911325455e-01 3.8286137580871582e-01</leafValues></_>
    <_>
      <internalNodes>
        0 -1 7739247 -3.0378118390217423e-04</internalNodes>
      <leafValues>
        -4.1631644964218140e-01 1.0484015196561813e-01</leafValues></_>
    <_>
      <internalNodes>
        0 -1 7185310 -7.1247247979044914e-04</internalNodes>
      <leafValues>
        -6.3431477546691895e-01 6.0789469629526138e-02</leafValues></_>
    <_>
      <internalNodes>
        0 -1 5149215 -5.9869949473068118e-04</internalNodes>
      <leafValues>
        3.8398367166519165e-01 -1.1517956852912903e-01</leafValues></_>
    <_>
      <internalNodes>
        0 -1 6139966 -6.5759621793404222e-04</internalNodes>
      <leafValues>
        2.2319957613945007e-01 -1.8628242611885071e-01</leafValues></_>
    <_>
      <internalNodes>
        0 -1 4572870 5.2475724369287491e-03</internalNodes>
      <leafValues>
        -1.5088099241256714e-01 3.0008205771446228e-01</leafValues></_>
    <_>
      <internalNodes>
        0 -1 1998577 2.5803402066230774e-02</internalNodes>
      <leafValues>
        9.9598854780197144e-02 -4.4491878151893616e-01</leafValues></_>
    <_>
      <internalNodes>
        0 -1 3694595 -1.7242901958525181e-03</internalNodes>
      <leafValues>
        2.6021212339401245e-01 -1.7176589369773865e-01</leafValues></_></weakClassifiers></stage12>
</opencv_storage>
