<?xml version="1.0"?>
<opencv_storage>
<stage7>
  <maxWeakCount>24</maxWeakCount>
  <stageThreshold>-1.9428631067276001e+00</stageThreshold>
  <weakClassifiers>
    <_>
      <internalNodes>
        0 -1 5252469 5.6725926697254181e-03</internalNodes>
      <leafValues>
        -8.4783250093460083e-01 -4.6212396025657654e-01</leafValues></_>
    <_>
      <internalNodes>
        0 -1 6362500 1.3593588024377823e-02</internalNodes>
      <leafValues>
        -5.1516294479370117e-01 6.0922961682081223e-02</leafValues></_>
    <_>
      <internalNodes>
        0 -1 5165577 7.2949575260281563e-03</internalNodes>
      <leafValues>
        -1.8044853210449219e-01 4.6941703557968140e-01</leafValues></_>
    <_>
      <internalNodes>
        0 -1 5041460 2.7679165359586477e-03</internalNodes>
      <leafValues>
        -1.0726989060640335e-01 6.1008161306381226e-01</leafValues></_>
    <_>
      <internalNodes>
        0 -1 5041460 -7.5557618401944637e-04</internalNodes>
      <leafValues>
        3.4696489572525024e-01 -2.0525382459163666e-01</leafValues></_>
    <_>
      <internalNodes>
        0 -1 2039716 -3.0390135943889618e-02</internalNodes>
      <leafValues>
        2.5202059745788574e-01 -2.8964304924011230e-01</leafValues></_>
    <_>
      <internalNodes>
        0 -1 5472334 -7.7534915180876851e-04</internalNodes>
      <leafValues>
        5.6492328643798828e-01 -1.2712283432483673e-01</leafValues></_>
    <_>
      <internalNodes>
        0 -1 5368552 -5.9455091832205653e-04</internalNodes>
      <leafValues>
        5.1857024431228638e-01 -1.1030533909797668e-01</leafValues></_>
    <_>
      <internalNodes>
        0 -1 176831 -4.7276946133933961e-05</internalNodes>
      <leafValues>
        -4.9909842014312744e-01 1.4004977047443390e-01</leafValues></_>
    <_>
      <internalNodes>
        0 -1 242956 7.5663346797227859e-03</internalNodes>
      <leafValues>
        -1.4507892727851868e-01 4.4247445464134216e-01</leafValues></_>
    <_>
      <internalNodes>
        0 -1 2256 -1.7835366725921631e-01</internalNodes>
      <leafValues>
        4.2881843447685242e-01 -1.7239739000797272e-01</leafValues></_>
    <_>
      <internalNodes>
        0 -1 3316802 -5.1695173606276512e-03</internalNodes>
      <leafValues>
        3.5743528604507446e-01 -1.7064288258552551e-01</leafValues></_>
    <_>
      <internalNodes>
        0 -1 5587640 -1.6298054251819849e-03</internalNodes>
      <leafValues>
        4.2776462435722351e-01 -1.4788362383842468e-01</leafValues></_>
    <_>
      <internalNodes>
        0 -1 5688173 5.9999289078405127e-05</internalNodes>
      <leafValues>
        -2.1690091490745544e-01 3.0695018172264099e-01</leafValues></_>
    <_>
      <internalNodes>
        0 -1 3990859 -2.3326900554820895e-04</internalNodes>
      <leafValues>
        -5.8037400245666504e-01 1.0823647677898407e-01</leafValues></_>
    <_>
      <internalNodes>
        0 -1 5151886 7.6173670822754502e-04</internalNodes>
      <leafValues>
        -1.1293800920248032e-01 5.9347331523895264e-01</leafValues></_>
    <_>
      <internalNodes>
        0 -1 4929150 -1.0571209713816643e-03</internalNodes>
      <leafValues>
        4.5691534876823425e-01 -1.3328690826892853e-01</leafValues></_>
    <_>
      <internalNodes>
        0 -1 5751099 -8.9066592045128345e-04</internalNodes>
      <leafValues>
        -6.2647110223770142e-01 1.0563388466835022e-01</leafValues></_>
    <_>
      <internalNodes>
        0 -1 5772560 -3.3015443477779627e-04</internalNodes>
      <leafValues>
        2.5507897138595581e-01 -2.4861642718315125e-01</leafValues></_>
    <_>
      <internalNodes>
        0 -1 5676829 -4.0092755807563663e-04</internalNodes>
      <leafValues>
        4.6062049269676208e-01 -1.4718127250671387e-01</leafValues></_>
    <_>
      <internalNodes>
        0 -1 475511 -3.4951814450323582e-04</internalNodes>
      <leafValues>
        -5.6024187803268433e-01 1.1766765266656876e-01</leafValues></_>
    <_>
      <internalNodes>
        0 -1 6904112 -4.6119312755763531e-03</internalNodes>
      <leafValues>
        -7.7168363332748413e-01 7.0239298045635223e-02</leafValues></_>
    <_>
      <internalNodes>
        0 -1 7606198 -1.3163765892386436e-02</internalNodes>
      <leafValues>
        4.7735473513603210e-01 -1.4309214055538177e-01</leafValues></_>
    <_>
      <internalNodes>
        0 -1 5688175 -7.0026355388108641e-05</internalNodes>
      <leafValues>
        3.1613418459892273e-01 -1.9068831205368042e-01</leafValues></_></weakClassifiers></stage7>
</opencv_storage>
