<?xml version="1.0"?>
<opencv_storage>
<cascade>
  <stageType>BOOST</stageType>
  <featureType>HAAR</featureType>
  <height>40</height>
  <width>80</width>
  <stageParams>
    <boostType>GAB</boostType>
    <minHitRate>9.9900001287460327e-01</minHitRate>
    <maxFalseAlarm>5.0000000000000000e-01</maxFalseAlarm>
    <weightTrimRate>9.4999999999999996e-01</weightTrimRate>
    <maxDepth>1</maxDepth>
    <maxWeakCount>100</maxWeakCount></stageParams>
  <featureParams>
    <maxCatCount>0</maxCatCount>
    <featSize>1</featSize>
    <mode>ALL</mode></featureParams>
  <stageNum>2</stageNum>
  <stages>
    <!-- stage 0 -->
    <_>
      <maxWeakCount>5</maxWeakCount>
      <stageThreshold>-2.4406666755676270e+00</stageThreshold>
      <weakClassifiers>
        <_>
          <internalNodes>
            0 -1 8 2.2111162543296814e-03</internalNodes>
          <leafValues>
            -9.3637782335281372e-01 6.3157892227172852e-01</leafValues></_>
        <_>
          <internalNodes>
            0 -1 6 -1.0795118287205696e-02</internalNodes>
          <leafValues>
            4.1018742322921753e-01 -8.5905575752258301e-01</leafValues></_>
        <_>
          <internalNodes>
            0 -1 1 -1.4850057195872068e-03</internalNodes>
          <leafValues>
            4.3220877647399902e-01 -7.4164843559265137e-01</leafValues></_>
        <_>
          <internalNodes>
            0 -1 10 -2.3942757397890091e-03</internalNodes>
          <leafValues>
            5.9825724363327026e-01 -5.2357894182205200e-01</leafValues></_>
        <_>
          <internalNodes>
            0 -1 12 1.0505276732146740e-03</internalNodes>
          <leafValues>
            -4.6143645048141479e-01 6.1999434232711792e-01</leafValues></_></weakClassifiers></_>
    <!-- stage 1 -->
    <_>
      <maxWeakCount>8</maxWeakCount>
      <stageThreshold>-2.0806665420532227e+00</stageThreshold>
      <weakClassifiers>
        <_>
          <internalNodes>
            0 -1 7 9.6988119184970856e-03</internalNodes>
          <leafValues>
            -8.8401913642883301e-01 5.0702702999114990e-01</leafValues></_>
        <_>
          <internalNodes>
            0 -1 5 -2.7374455705285072e-02</internalNodes>
          <leafValues>
            4.5051631331443787e-01 -7.6859253644943237e-01</leafValues></_>
        <_>
          <internalNodes>
            0 -1 9 1.4567875768989325e-03</internalNodes>
          <leafValues>
            -5.7415062189102173e-01 3.1077674031257629e-01</leafValues></_>
        <_>
          <internalNodes>
            0 -1 2 -9.3284603208303452e-03</internalNodes>
          <leafValues>
            3.3282932639122009e-01 -5.1739907264709473e-01</leafValues></_>
        <_>
          <internalNodes>
            0 -1 4 1.5885156393051147e-01</internalNodes>
          <leafValues>
            1.3972641527652740e-01 -9.6056032180786133e-01</leafValues></_>
        <_>
          <internalNodes>
            0 -1 3 -9.2468917369842529e-02</internalNodes>
          <leafValues>
            -8.2678568363189697e-01 2.2446867823600769e-01</leafValues></_>
        <_>
          <internalNodes>
            0 -1 11 1.2810526415705681e-02</internalNodes>
          <leafValues>
            -2.1774145960807800e-01 7.4504852294921875e-01</leafValues></_>
        <_>
          <internalNodes>
            0 -1 0 1.0832833126187325e-02</internalNodes>
          <leafValues>
            -1.9398002326488495e-01 6.8336814641952515e-01</leafValues></_></weakClassifiers></_></stages>
  <features>
    <_>
      <rects>
        <_>
          0 11 10 18 -1.</_>
        <_>
          5 11 5 18 2.</_></rects>
      <tilted>0</tilted></_>
    <_>
      <rects>
        <_>
          5 7 20 24 -1.</_>
        <_>
          15 7 10 24 2.</_></rects>
      <tilted>0</tilted></_>
    <_>
      <rects>
        <_>
          6 3 40 31 -1.</_>
        <_>
          16 3 20 31 2.</_></rects>
      <tilted>0</tilted></_>
    <_>
      <rects>
        <_>
          12 7 66 27 -1.</_>
        <_>
          45 7 33 27 2.</_></rects>
      <tilted>0</tilted></_>
    <_>
      <rects>
        <_>
          13 3 52 36 -1.</_>
        <_>
          39 3 26 36 2.</_></rects>
      <tilted>0</tilted></_>
    <_>
      <rects>
        <_>
          28 0 24 24 -1.</_>
        <_>
          28 8 24 8 3.</_></rects>
      <tilted>0</tilted></_>
    <_>
      <rects>
        <_>
          30 2 20 20 -1.</_>
        <_>
          30 7 20 10 2.</_></rects>
      <tilted>0</tilted></_>
    <_>
      <rects>
        <_>
          36 15 8 12 -1.</_>
        <_>
          36 19 8 4 3.</_></rects>
      <tilted>0</tilted></_>
    <_>
      <rects>
        <_>
          36 16 6 6 -1.</_>
        <_>
          36 19 6 3 2.</_></rects>
      <tilted>0</tilted></_>
    <_>
      <rects>
        <_>
          37 16 5 6 -1.</_>
        <_>
          37 19 5 3 2.</_></rects>
      <tilted>0</tilted></_>
    <_>
      <rects>
        <_>
          37 20 9 12 -1.</_>
        <_>
          37 23 9 6 2.</_></rects>
      <tilted>0</tilted></_>
    <_>
      <rects>
        <_>
          45 30 16 10 -1.</_>
        <_>
          45 35 16 5 2.</_></rects>
      <tilted>0</tilted></_>
    <_>
      <rects>
        <_>
          59 14 12 5 -1.</_>
        <_>
          65 14 6 5 2.</_></rects>
      <tilted>0</tilted></_></features></cascade>
</opencv_storage>
