<?xml version="1.0"?>
<opencv_storage>
<stage18>
  <maxWeakCount>49</maxWeakCount>
  <stageThreshold>-1.9527988433837891e+00</stageThreshold>
  <weakClassifiers>
    <_>
      <internalNodes>
        0 -1 5156775 -8.2614523125812411e-04</internalNodes>
      <leafValues>
        -2.9055258631706238e-01 -7.1336555480957031e-01</leafValues></_>
    <_>
      <internalNodes>
        0 -1 5041497 -9.7620452288538218e-04</internalNodes>
      <leafValues>
        2.0096835494041443e-01 -2.7014458179473877e-01</leafValues></_>
    <_>
      <internalNodes>
        0 -1 5038798 7.0921739097684622e-04</internalNodes>
      <leafValues>
        -1.4257517457008362e-01 2.5634551048278809e-01</leafValues></_>
    <_>
      <internalNodes>
        0 -1 565310 3.3599629532545805e-03</internalNodes>
      <leafValues>
        -2.9014343023300171e-01 1.0987141728401184e-01</leafValues></_>
    <_>
      <internalNodes>
        0 -1 5061943 -2.1646600216627121e-03</internalNodes>
      <leafValues>
        -4.7756198048591614e-01 6.0957547277212143e-02</leafValues></_>
    <_>
      <internalNodes>
        0 -1 7597053 -8.0092642456293106e-03</internalNodes>
      <leafValues>
        2.9151502251625061e-01 -9.1701135039329529e-02</leafValues></_>
    <_>
      <internalNodes>
        0 -1 1180318 6.0601916629821062e-04</internalNodes>
      <leafValues>
        -1.6601780056953430e-01 1.8561336398124695e-01</leafValues></_>
    <_>
      <internalNodes>
        0 -1 98623 -1.5839547850191593e-03</internalNodes>
      <leafValues>
        3.6850342154502869e-01 -6.7089602351188660e-02</leafValues></_>
    <_>
      <internalNodes>
        0 -1 7761911 -2.0327018864918500e-04</internalNodes>
      <leafValues>
        -3.5496798157691956e-01 7.4765831232070923e-02</leafValues></_>
    <_>
      <internalNodes>
        0 -1 5687052 -3.2427436672151089e-03</internalNodes>
      <leafValues>
        -7.1960133314132690e-01 4.4062498956918716e-02</leafValues></_>
    <_>
      <internalNodes>
        0 -1 5686888 3.9831553294789046e-05</internalNodes>
      <leafValues>
        -1.7379102110862732e-01 1.7545650899410248e-01</leafValues></_>
    <_>
      <internalNodes>
        0 -1 5591823 6.1065313639119267e-04</internalNodes>
      <leafValues>
        -8.7933950126171112e-02 3.2911217212677002e-01</leafValues></_>
    <_>
      <internalNodes>
        0 -1 5686892 -1.2480196892283857e-04</internalNodes>
      <leafValues>
        2.3299208283424377e-01 -1.2673418223857880e-01</leafValues></_>
    <_>
      <internalNodes>
        0 -1 662142 -7.7872555266367272e-06</internalNodes>
      <leafValues>
        -2.0047356188297272e-01 1.4123021066188812e-01</leafValues></_>
    <_>
      <internalNodes>
        0 -1 2337987 -1.4469313435256481e-02</internalNodes>
      <leafValues>
        2.4320696294307709e-01 -1.2078825384378433e-01</leafValues></_>
    <_>
      <internalNodes>
        0 -1 5170835 -7.3240324854850769e-04</internalNodes>
      <leafValues>
        3.8033825159072876e-01 -7.9656891524791718e-02</leafValues></_>
    <_>
      <internalNodes>
        0 -1 161198 -8.4399798652157187e-05</internalNodes>
      <leafValues>
        -2.6824495196342468e-01 1.1157379299402237e-01</leafValues></_>
    <_>
      <internalNodes>
        0 -1 7195168 -2.9983991757035255e-02</internalNodes>
      <leafValues>
        -5.3171759843826294e-01 5.4987560957670212e-02</leafValues></_>
    <_>
      <internalNodes>
        0 -1 6851558 1.4609703794121742e-04</internalNodes>
      <leafValues>
        -2.0872280001640320e-01 1.4677366614341736e-01</leafValues></_>
    <_>
      <internalNodes>
        0 -1 5474524 -9.7019894747063518e-04</internalNodes>
      <leafValues>
        4.4354346394538879e-01 -7.3188036680221558e-02</leafValues></_>
    <_>
      <internalNodes>
        0 -1 4351453 -4.2856539948843420e-04</internalNodes>
      <leafValues>
        2.3299802839756012e-01 -1.2254863232374191e-01</leafValues></_>
    <_>
      <internalNodes>
        0 -1 7430165 -6.5796347334980965e-03</internalNodes>
      <leafValues>
        -6.9153207540512085e-01 4.2410671710968018e-02</leafValues></_>
    <_>
      <internalNodes>
        0 -1 4358857 -6.7579757887870073e-04</internalNodes>
      <leafValues>
        1.9832862913608551e-01 -1.5400999784469604e-01</leafValues></_>
    <_>
      <internalNodes>
        0 -1 160473 -3.3812641049735248e-04</internalNodes>
      <leafValues>
        -3.4848889708518982e-01 8.4194958209991455e-02</leafValues></_>
    <_>
      <internalNodes>
        0 -1 4090429 -3.1492099165916443e-02</internalNodes>
      <leafValues>
        -6.5951913595199585e-01 4.1908618062734604e-02</leafValues></_>
    <_>
      <internalNodes>
        0 -1 2439460 3.5834982991218567e-03</internalNodes>
      <leafValues>
        -1.2505447864532471e-01 2.7390810847282410e-01</leafValues></_>
    <_>
      <internalNodes>
        0 -1 3956504 -6.6793998703360558e-03</internalNodes>
      <leafValues>
        2.4470481276512146e-01 -1.4306785166263580e-01</leafValues></_>
    <_>
      <internalNodes>
        0 -1 4680352 -1.3481306843459606e-02</internalNodes>
      <leafValues>
        -7.0470756292343140e-01 4.3234039098024368e-02</leafValues></_>
    <_>
      <internalNodes>
        0 -1 5569939 -8.8487676111981273e-04</internalNodes>
      <leafValues>
        2.6702889800071716e-01 -1.1891169846057892e-01</leafValues></_>
    <_>
      <internalNodes>
        0 -1 5567316 5.0073885358870029e-04</internalNodes>
      <leafValues>
        -1.5555006265640259e-01 2.5060337781906128e-01</leafValues></_>
    <_>
      <internalNodes>
        0 -1 3045203 -3.8473964668810368e-03</internalNodes>
      <leafValues>
        4.6937578916549683e-01 -6.8050101399421692e-02</leafValues></_>
    <_>
      <internalNodes>
        0 -1 5916379 -7.5417407788336277e-03</internalNodes>
      <leafValues>
        -7.4279046058654785e-01 4.6940520405769348e-02</leafValues></_>
    <_>
      <internalNodes>
        0 -1 1415203 1.6059450805187225e-02</internalNodes>
      <leafValues>
        -1.1211380362510681e-01 3.0085128545761108e-01</leafValues></_>
    <_>
      <internalNodes>
        0 -1 7319313 1.3751297956332564e-03</internalNodes>
      <leafValues>
        -2.2921332716941833e-01 1.4036552608013153e-01</leafValues></_>
    <_>
      <internalNodes>
        0 -1 6607646 -2.5411858223378658e-04</internalNodes>
      <leafValues>
        -3.9437118172645569e-01 7.9807005822658539e-02</leafValues></_>
    <_>
      <internalNodes>
        0 -1 274133 -2.7572144754230976e-03</internalNodes>
      <leafValues>
        -6.6156202554702759e-01 4.4099126011133194e-02</leafValues></_>
    <_>
      <internalNodes>
        0 -1 7766049 -3.2256662962026894e-05</internalNodes>
      <leafValues>
        -3.3733561635017395e-01 9.1242238879203796e-02</leafValues></_>
    <_>
      <internalNodes>
        0 -1 3916429 -2.8784491587430239e-04</internalNodes>
      <leafValues>
        1.5828545391559601e-01 -1.9040726125240326e-01</leafValues></_>
    <_>
      <internalNodes>
        0 -1 5474528 -6.4756756182760000e-04</internalNodes>
      <leafValues>
        4.6701815724372864e-01 -6.4059697091579437e-02</leafValues></_>
    <_>
      <internalNodes>
        0 -1 5677510 -2.8870690148323774e-03</internalNodes>
      <leafValues>
        3.4009945392608643e-01 -8.5086062550544739e-02</leafValues></_>
    <_>
      <internalNodes>
        0 -1 2513100 -2.1895149257034063e-04</internalNodes>
      <leafValues>
        1.4912481606006622e-01 -2.0908240973949432e-01</leafValues></_>
    <_>
      <internalNodes>
        0 -1 5378712 -2.5447181542403996e-05</internalNodes>
      <leafValues>
        1.5009702742099762e-01 -2.1717795729637146e-01</leafValues></_>
    <_>
      <internalNodes>
        0 -1 7646470 3.8809454999864101e-03</internalNodes>
      <leafValues>
        -1.1874660849571228e-01 2.5557437539100647e-01</leafValues></_>
    <_>
      <internalNodes>
        0 -1 7022937 -2.4607267230749130e-02</internalNodes>
      <leafValues>
        4.3438744544982910e-01 -7.5236991047859192e-02</leafValues></_>
    <_>
      <internalNodes>
        0 -1 7715421 6.1773997731506824e-03</internalNodes>
      <leafValues>
        -9.6546381711959839e-02 3.4790989756584167e-01</leafValues></_>
    <_>
      <internalNodes>
        0 -1 4488519 -3.0292917508631945e-03</internalNodes>
      <leafValues>
        -7.0471769571304321e-01 4.6976599842309952e-02</leafValues></_>
    <_>
      <internalNodes>
        0 -1 6743252 1.8486974295228720e-03</internalNodes>
      <leafValues>
        -8.4136098623275757e-02 4.2943620681762695e-01</leafValues></_>
    <_>
      <internalNodes>
        0 -1 7589166 1.2825807556509972e-02</internalNodes>
      <leafValues>
        4.6710908412933350e-02 -7.1828758716583252e-01</leafValues></_>
    <_>
      <internalNodes>
        0 -1 7765966 -6.1969796661287546e-05</internalNodes>
      <leafValues>
        -3.3695614337921143e-01 9.2119723558425903e-02</leafValues></_></weakClassifiers></stage18>
</opencv_storage>
